<?xml version="1.0"?>
<opencv_storage>
<stage6>
  <maxWeakCount>4</maxWeakCount>
  <stageThreshold>-2.7501448988914490e-01</stageThreshold>
  <weakClassifiers>
    <_>
      <internalNodes>
        0 -1 57 -263028056 -168054275 -1181392897 -174984707 -105844225
        -288321 -70909953 -68158721</internalNodes>
      <leafValues>
        -7.7746742963790894e-01 6.8837594985961914e-01</leafValues></_>
    <_>
      <internalNodes>
        0 -1 6058 -277876957 -6062190 -44762189 -2507873 -973101141
        -976498806 -50856773 -1802502901</internalNodes>
      <leafValues>
        -7.4854004383087158e-01 6.6642916202545166e-01</leafValues></_>
    <_>
      <internalNodes>
        0 -1 4026 -13699614 -14688261 -41943109 -1082392901 -1372680225
        -282069641 -269485393 -8948941</internalNodes>
      <leafValues>
        -8.8063806295394897e-01 5.4893422126770020e-01</leafValues></_>
    <_>
      <internalNodes>
        0 -1 7720 -352337921 -75561961 -388239745 -222333419 584038399
        -353648077 -1409291525 -495728121</internalNodes>
      <leafValues>
        -6.9632172584533691e-01 7.1666181087493896e-01</leafValues></_></weakClassifiers></stage6>
</opencv_storage>
